network unknown {
}
variable AN {
    type discrete [ 3 ] { AN_0, AN_1, AN_2 };
}
variable CsH {
    type discrete [ 3 ] { CsH_0, CsH_1, CsH_2 };
}
variable CsI {
    type discrete [ 3 ] { CsI_0, CsI_1, CsI_2 };
}
variable CsM {
    type discrete [ 3 ] { CsM_0, CsM_1, CsM_2 };
}
variable DDro {
    type discrete [ 2 ] { DDro_0, DDro_1 };
}
variable IDro {
    type discrete [ 1 ] { IDro_0 };
}
variable InD {
    type discrete [ 3 ] { InD_0, InD_1, InD_2 };
}
variable InI {
    type discrete [ 3 ] { InI_0, InI_1, InI_2 };
}
variable InN {
    type discrete [ 1 ] { InN_0 };
}
variable NDro {
    type discrete [ 1 ] { NDro_0 };
}
variable OutD {
    type discrete [ 3 ] { OutD_0, OutD_1, OutD_2 };
}
variable OutI {
    type discrete [ 3 ] { OutI_0, OutI_1, OutI_2 };
}
variable OutN {
    type discrete [ 1 ] { OutN_0 };
}
variable PitC {
    type discrete [ 3 ] { PitC_0, PitC_1, PitC_2 };
}
variable PitD {
    type discrete [ 3 ] { PitD_0, PitD_1, PitD_2 };
}
variable PitN {
    type discrete [ 2 ] { PitN_0, PitN_1 };
}
variable PitT {
    type discrete [ 3 ] { PitT_0, PitT_1, PitT_2 };
}
variable PitUn {
    type discrete [ 2 ] { PitUn_0, PitUn_1 };
}
variable PitUp {
    type discrete [ 3 ] { PitUp_0, PitUp_1, PitUp_2 };
}
probability ( AN ) {
    table 0.250185597624, 0.499628804751, 0.250185597624 ;
}
probability ( CsH | AN, InI ) {
    table 0.106788710908, 0.0180613210982, 0.0406504065041, 0.333333333333, 0.333333333333, 0.00105767641712, 0.333333333333, 0.0406504065041, 0.000332734411393, 0.88939740656, 0.967810064817, 0.918699186992, 0.333333333333, 0.333333333333, 0.0947611964964, 0.333333333333, 0.918699186992, 0.478272442936, 0.00381388253242, 0.0141286140849, 0.0406504065041, 0.333333333333, 0.333333333333, 0.904181127086, 0.333333333333, 0.0406504065041, 0.521394822653 ;
}
probability ( CsI | AN, InD ) {
    table 0.0094696969697, 0.0281961350664, 0.0520833333333, 0.333333333333, 0.00786163522013, 0.000168725113046, 0.333333333333, 0.0724637681159, 0.000331543001127, 0.981060606061, 0.965889553676, 0.895833333333, 0.333333333333, 0.559748427673, 0.00927988121752, 0.333333333333, 0.0724637681159, 0.000331543001127, 0.0094696969697, 0.00591431125782, 0.0520833333333, 0.333333333333, 0.432389937107, 0.990551393669, 0.333333333333, 0.855072463768, 0.999336913998 ;
}
probability ( CsM | AN, InI ) {
    table 0.374523264683, 0.0219940281116, 0.0406504065041, 0.333333333333, 0.333333333333, 0.000165261940175, 0.333333333333, 0.0406504065041, 0.000332734411393, 0.621662852784, 0.973709125337, 0.260162601626, 0.333333333333, 0.333333333333, 0.00105767641712, 0.333333333333, 0.260162601626, 0.009316563519, 0.00381388253242, 0.0042968465516, 0.69918699187, 0.333333333333, 0.333333333333, 0.998777061643, 0.333333333333, 0.69918699187, 0.99035070207 ;
}
probability ( DDro | AN, CsH, CsI, PitC ) {
    table 0.5, 0.5, 0.5, 0.993902439024, 0.99617151608, 0.5, 0.5, 0.970930232558, 0.5, 0.99617151608, 0.993902439024, 0.5, 0.99617151608, 0.999939607692, 0.993902439024, 0.5, 0.970930232558, 0.970930232558, 0.970930232558, 0.970930232558, 0.5, 0.5, 0.993902439024, 0.5, 0.5, 0.5, 0.5, 0.5, 0.5, 0.5, 0.5, 0.5, 0.5, 0.5, 0.5, 0.970930232558, 0.5, 0.5, 0.5, 0.5, 0.5, 0.796341463415, 0.5, 0.0290697674419, 0.829796421962, 0.5, 0.5, 0.5, 0.5, 0.5, 0.942925495557, 0.5, 0.335030549898, 0.578357091145, 0.5, 0.5, 0.5, 0.5, 0.5, 0.5, 0.5, 0.5, 0.5, 0.5, 0.5, 0.5, 0.5, 0.5, 0.5, 0.5, 0.970930232558, 0.999885289529, 0.5, 0.5, 0.5, 0.5, 0.5, 0.5, 0.5, 0.5, 0.999893594382, 0.5, 0.5, 0.5, 0.00609756097561, 0.00382848392037, 0.5, 0.5, 0.0290697674419, 0.5, 0.00382848392037, 0.00609756097561, 0.5, 0.00382848392037, 6.03923084356e-05, 0.00609756097561, 0.5, 0.0290697674419, 0.0290697674419, 0.0290697674419, 0.0290697674419, 0.5, 0.5, 0.00609756097561, 0.5, 0.5, 0.5, 0.5, 0.5, 0.5, 0.5, 0.5, 0.5, 0.5, 0.5, 0.5, 0.0290697674419, 0.5, 0.5, 0.5, 0.5, 0.5, 0.203658536585, 0.5, 0.970930232558, 0.170203578038, 0.5, 0.5, 0.5, 0.5, 0.5, 0.0570745044429, 0.5, 0.664969450102, 0.421642908855, 0.5, 0.5, 0.5, 0.5, 0.5, 0.5, 0.5, 0.5, 0.5, 0.5, 0.5, 0.5, 0.5, 0.5, 0.5, 0.5, 0.0290697674419, 0.000114710470772, 0.5, 0.5, 0.5, 0.5, 0.5, 0.5, 0.5, 0.5, 0.000106405618217 ;
}
probability ( IDro | CsM, InI ) {
    table 1.0, 1.0, 1.0, 1.0, 1.0, 1.0, 1.0, 1.0, 1.0 ;
}
probability ( InD | AN ) {
    table 0.0348170128586, 0.000495294700347, 0.000989119683482, 0.958852621167, 0.0210004952947, 0.00454995054402, 0.00633036597428, 0.978504210005, 0.994460929773 ;
}
probability ( InI | AN ) {
    table 0.0864490603363, 0.000495294700347, 0.000989119683482, 0.905440158259, 0.000495294700347, 0.00811078140455, 0.00811078140455, 0.999009410599, 0.990900098912 ;
}
probability ( InN ) {
    table 1.0 ;
}
probability ( NDro | InN ) {
    table 1.0 ;
}
probability ( OutD | AN, CsH, CsI ) {
    table 0.333333333333, 0.459737827715, 0.0520833333333, 0.611423220974, 0.00393320615182, 0.0282485875706, 0.485875706215, 0.0119047619048, 0.333333333333, 0.333333333333, 0.333333333333, 0.0520833333333, 0.333333333333, 0.0119047619048, 0.000610053684724, 0.333333333333, 0.00339443312967, 6.20270437911e-05, 0.333333333333, 0.333333333333, 0.333333333333, 0.333333333333, 0.333333333333, 0.00022846698652, 0.333333333333, 0.333333333333, 0.000212720697724, 0.333333333333, 0.535580524345, 0.895833333333, 0.383895131086, 0.995949033185, 0.0282485875706, 0.485875706215, 0.97619047619, 0.333333333333, 0.333333333333, 0.333333333333, 0.0520833333333, 0.333333333333, 0.97619047619, 0.0104929233773, 0.333333333333, 0.278343516633, 6.20270437911e-05, 0.333333333333, 0.333333333333, 0.333333333333, 0.333333333333, 0.333333333333, 0.00022846698652, 0.333333333333, 0.333333333333, 0.000212720697724, 0.333333333333, 0.00468164794007, 0.0520833333333, 0.00468164794007, 0.000117760663228, 0.943502824859, 0.0282485875706, 0.0119047619048, 0.333333333333, 0.333333333333, 0.333333333333, 0.895833333333, 0.333333333333, 0.0119047619048, 0.988897022938, 0.333333333333, 0.718262050238, 0.999875945912, 0.333333333333, 0.333333333333, 0.333333333333, 0.333333333333, 0.333333333333, 0.999543066027, 0.333333333333, 0.333333333333, 0.999574558605 ;
}
probability ( OutI | AN, CsM ) {
    table 0.0401002506266, 0.0516283322783, 0.0333333333333, 0.333333333333, 0.119047619048, 0.000165409554056, 0.333333333333, 0.0282485875706, 0.000333934415281, 0.953634085213, 0.934726032215, 0.933333333333, 0.333333333333, 0.119047619048, 0.000165409554056, 0.333333333333, 0.0282485875706, 0.0147599011554, 0.0062656641604, 0.0136456355068, 0.0333333333333, 0.333333333333, 0.761904761905, 0.999669180892, 0.333333333333, 0.943502824859, 0.984906164429 ;
}
probability ( OutN | InI, InN ) {
    table 1.0, 1.0, 1.0 ;
}
probability ( PitC | AN, InI ) {
    table 0.312738367658, 0.0141286140849, 0.0406504065041, 0.333333333333, 0.333333333333, 0.000165261940175, 0.333333333333, 0.0406504065041, 0.000332734411393, 0.683447749809, 0.979608185857, 0.260162601626, 0.333333333333, 0.333333333333, 0.0064121632788, 0.333333333333, 0.0406504065041, 0.00212950023291, 0.00381388253242, 0.00626320005826, 0.69918699187, 0.333333333333, 0.333333333333, 0.993422574781, 0.333333333333, 0.918699186992, 0.997537765356 ;
}
probability ( PitD | AN, CsH, CsI, PitUn ) {
    table 0.333333333333, 0.333333333333, 0.460631777463, 0.333333333333, 0.0282485875706, 0.333333333333, 0.537010843942, 0.333333333333, 0.0153233690211, 0.333333333333, 0.0147492625369, 0.333333333333, 0.492625368732, 0.333333333333, 0.00606060606061, 0.333333333333, 0.333333333333, 0.333333333333, 0.333333333333, 0.333333333333, 0.333333333333, 0.333333333333, 0.333333333333, 0.943502824859, 0.333333333333, 0.333333333333, 0.333333333333, 0.00606060606061, 0.00435161009574, 0.00032801941875, 0.333333333333, 0.333333333333, 0.0282485875706, 0.00180570603106, 9.35016362786e-05, 4.64058657014e-05, 0.333333333333, 0.333333333333, 0.333333333333, 0.333333333333, 0.333333333333, 0.333333333333, 0.333333333333, 0.333333333333, 0.333333333333, 0.333333333333, 0.000114272654554, 0.333333333333, 0.333333333333, 0.333333333333, 0.333333333333, 0.333333333333, 0.000106394297266, 0.333333333333, 0.333333333333, 0.333333333333, 0.537010843942, 0.333333333333, 0.943502824859, 0.333333333333, 0.460631777463, 0.333333333333, 0.978893560887, 0.333333333333, 0.0147492625369, 0.333333333333, 0.492625368732, 0.333333333333, 0.987878787879, 0.333333333333, 0.333333333333, 0.333333333333, 0.333333333333, 0.333333333333, 0.333333333333, 0.333333333333, 0.333333333333, 0.0282485875706, 0.333333333333, 0.333333333333, 0.333333333333, 0.00606060606061, 0.427328111401, 0.0215836777537, 0.333333333333, 0.333333333333, 0.0282485875706, 0.00180570603106, 0.0243291257597, 0.00756415610933, 0.333333333333, 0.333333333333, 0.333333333333, 0.333333333333, 0.333333333333, 0.333333333333, 0.333333333333, 0.333333333333, 0.333333333333, 0.333333333333, 0.000114272654554, 0.333333333333, 0.333333333333, 0.333333333333, 0.333333333333, 0.333333333333, 0.000106394297266, 0.333333333333, 0.333333333333, 0.333333333333, 0.002357378595, 0.333333333333, 0.0282485875706, 0.333333333333, 0.002357378595, 0.333333333333, 0.00578307009175, 0.333333333333, 0.970501474926, 0.333333333333, 0.0147492625369, 0.333333333333, 0.00606060606061, 0.333333333333, 0.333333333333, 0.333333333333, 0.333333333333, 0.333333333333, 0.333333333333, 0.333333333333, 0.333333333333, 0.0282485875706, 0.333333333333, 0.333333333333, 0.333333333333, 0.987878787879, 0.568320278503, 0.978088302828, 0.333333333333, 0.333333333333, 0.943502824859, 0.996388587938, 0.975577372604, 0.992389438025, 0.333333333333, 0.333333333333, 0.333333333333, 0.333333333333, 0.333333333333, 0.333333333333, 0.333333333333, 0.333333333333, 0.333333333333, 0.333333333333, 0.999771454691, 0.333333333333, 0.333333333333, 0.333333333333, 0.333333333333, 0.333333333333, 0.999787211405, 0.333333333333 ;
}
probability ( PitN | AN, PitC, PitD ) {
    table 0.994612068966, 0.982142857143, 0.5, 0.982142857143, 0.975022963329, 0.970930232558, 0.5, 0.5, 0.957627118644, 0.5, 0.5, 0.5, 0.5, 0.0178571428571, 0.0423728813559, 0.078125, 0.00702247191011, 0.0901509535683, 0.5, 0.5, 0.5, 0.5, 0.5, 0.921875, 0.5, 0.5, 0.838885945158, 0.00538793103448, 0.0178571428571, 0.5, 0.0178571428571, 0.0249770366707, 0.0290697674419, 0.5, 0.5, 0.0423728813559, 0.5, 0.5, 0.5, 0.5, 0.982142857143, 0.957627118644, 0.921875, 0.99297752809, 0.909849046432, 0.5, 0.5, 0.5, 0.5, 0.5, 0.078125, 0.5, 0.5, 0.161114054842 ;
}
probability ( PitT | AN, PitC, PitD ) {
    table 0.00359195402299, 0.0119047619048, 0.333333333333, 0.0119047619048, 0.0478108292706, 0.333333333333, 0.333333333333, 0.0147492625369, 0.0282485875706, 0.333333333333, 0.333333333333, 0.333333333333, 0.333333333333, 0.0119047619048, 0.0282485875706, 0.0520833333333, 0.00468164794007, 0.00824404160208, 0.333333333333, 0.333333333333, 0.333333333333, 0.333333333333, 0.333333333333, 0.895833333333, 0.333333333333, 0.333333333333, 0.0144169205634, 0.876436781609, 0.97619047619, 0.333333333333, 0.97619047619, 0.932994182623, 0.647286821705, 0.333333333333, 0.970501474926, 0.943502824859, 0.333333333333, 0.333333333333, 0.333333333333, 0.333333333333, 0.0119047619048, 0.0282485875706, 0.0520833333333, 0.00468164794007, 0.231136419795, 0.333333333333, 0.333333333333, 0.333333333333, 0.333333333333, 0.333333333333, 0.0520833333333, 0.333333333333, 0.333333333333, 0.983684373206, 0.119971264368, 0.0119047619048, 0.333333333333, 0.0119047619048, 0.0191949881062, 0.0193798449612, 0.333333333333, 0.0147492625369, 0.0282485875706, 0.333333333333, 0.333333333333, 0.333333333333, 0.333333333333, 0.97619047619, 0.943502824859, 0.895833333333, 0.99063670412, 0.760619538603, 0.333333333333, 0.333333333333, 0.333333333333, 0.333333333333, 0.333333333333, 0.0520833333333, 0.333333333333, 0.333333333333, 0.00189870623041 ;
}
probability ( PitUn | AN ) {
    table 0.998516320475, 0.302080237741, 0.998516320475, 0.00148367952522, 0.697919762259, 0.00148367952522 ;
}
probability ( PitUp | AN, CsI, CsM, InI, InN ) {
    table 0.8851044505, 0.659946236559, 0.333333333333, 0.0193798449612, 0.00998003992016, 0.333333333333, 0.333333333333, 0.333333333333, 0.333333333333, 0.8851044505, 0.250638080653, 0.333333333333, 0.172755593316, 0.0224881387244, 0.0193798449612, 0.333333333333, 0.00998003992016, 0.00672043010753, 0.333333333333, 0.333333333333, 0.333333333333, 0.333333333333, 0.00672043010753, 0.333333333333, 0.333333333333, 0.333333333333, 0.333333333333, 0.333333333333, 0.333333333333, 0.333333333333, 0.333333333333, 0.333333333333, 0.333333333333, 0.333333333333, 0.333333333333, 0.333333333333, 0.333333333333, 0.333333333333, 0.333333333333, 0.333333333333, 0.333333333333, 0.0193798449612, 0.333333333333, 0.333333333333, 0.000932661816825, 0.333333333333, 0.333333333333, 0.333333333333, 0.333333333333, 0.333333333333, 0.333333333333, 0.333333333333, 0.333333333333, 1.87556735913e-05, 0.333333333333, 0.333333333333, 0.333333333333, 0.333333333333, 0.333333333333, 0.333333333333, 0.333333333333, 0.333333333333, 0.333333333333, 0.333333333333, 0.333333333333, 0.333333333333, 0.333333333333, 0.333333333333, 0.333333333333, 0.333333333333, 0.333333333333, 0.333333333333, 0.333333333333, 0.333333333333, 0.333333333333, 0.333333333333, 0.0193798449612, 0.00406504065041, 0.333333333333, 0.00672043010753, 3.73390686143e-05, 0.112624886467, 0.333333333333, 0.333333333333, 0.961240310078, 0.98003992016, 0.333333333333, 0.333333333333, 0.333333333333, 0.333333333333, 0.112624886467, 0.746809596733, 0.333333333333, 0.826536391957, 0.971348196666, 0.961240310078, 0.333333333333, 0.49500998004, 0.333333333333, 0.333333333333, 0.333333333333, 0.333333333333, 0.333333333333, 0.986559139785, 0.333333333333, 0.333333333333, 0.333333333333, 0.333333333333, 0.333333333333, 0.333333333333, 0.333333333333, 0.333333333333, 0.333333333333, 0.333333333333, 0.333333333333, 0.333333333333, 0.333333333333, 0.333333333333, 0.333333333333, 0.333333333333, 0.333333333333, 0.333333333333, 0.0193798449612, 0.333333333333, 0.333333333333, 0.000932661816825, 0.333333333333, 0.333333333333, 0.333333333333, 0.333333333333, 0.333333333333, 0.333333333333, 0.333333333333, 0.333333333333, 1.87556735913e-05, 0.333333333333, 0.333333333333, 0.333333333333, 0.333333333333, 0.333333333333, 0.333333333333, 0.333333333333, 0.333333333333, 0.333333333333, 0.333333333333, 0.333333333333, 0.333333333333, 0.333333333333, 0.333333333333, 0.333333333333, 0.333333333333, 0.333333333333, 0.333333333333, 0.333333333333, 0.333333333333, 0.333333333333, 0.333333333333, 0.961240310078, 0.59674796748, 0.333333333333, 0.00672043010753, 0.0290721988231, 0.00227066303361, 0.00672043010753, 0.333333333333, 0.0193798449612, 0.00998003992016, 0.333333333333, 0.333333333333, 0.333333333333, 0.333333333333, 0.00227066303361, 0.00255232261358, 0.333333333333, 0.000708014726706, 0.00616366460931, 0.0193798449612, 0.333333333333, 0.49500998004, 0.659946236559, 0.333333333333, 0.333333333333, 0.333333333333, 0.333333333333, 0.00672043010753, 0.333333333333, 0.333333333333, 0.333333333333, 0.333333333333, 0.333333333333, 0.333333333333, 0.333333333333, 0.333333333333, 0.333333333333, 0.333333333333, 0.333333333333, 0.333333333333, 0.333333333333, 0.333333333333, 0.333333333333, 0.333333333333, 0.333333333333, 0.333333333333, 0.961240310078, 0.333333333333, 0.333333333333, 0.998134676366, 0.333333333333, 0.333333333333, 0.333333333333, 0.333333333333, 0.333333333333, 0.333333333333, 0.333333333333, 0.333333333333, 0.999962488653, 0.333333333333, 0.333333333333, 0.333333333333, 0.333333333333, 0.333333333333, 0.333333333333, 0.333333333333, 0.333333333333, 0.333333333333, 0.333333333333, 0.333333333333, 0.333333333333, 0.333333333333, 0.333333333333, 0.333333333333, 0.333333333333, 0.333333333333, 0.333333333333, 0.333333333333, 0.333333333333, 0.333333333333, 0.333333333333, 0.0193798449612, 0.39918699187, 0.333333333333, 0.986559139785, 0.970890462108 ;
}
