network unknown {
}
variable AN {
    type discrete [ 4 ] { AN_0, AN_1, AN_2, AN_3 };
}
variable CsH {
    type discrete [ 3 ] { CsH_0, CsH_1, CsH_2 };
}
variable CsI {
    type discrete [ 3 ] { CsI_0, CsI_1, CsI_2 };
}
variable CsM {
    type discrete [ 3 ] { CsM_0, CsM_1, CsM_2 };
}
variable DDro {
    type discrete [ 2 ] { DDro_0, DDro_1 };
}
variable IDro {
    type discrete [ 1 ] { IDro_0 };
}
variable InD {
    type discrete [ 3 ] { InD_0, InD_1, InD_2 };
}
variable InI {
    type discrete [ 3 ] { InI_0, InI_1, InI_2 };
}
variable InN {
    type discrete [ 1 ] { InN_0 };
}
variable NDro {
    type discrete [ 1 ] { NDro_0 };
}
variable OutD {
    type discrete [ 3 ] { OutD_0, OutD_1, OutD_2 };
}
variable OutI {
    type discrete [ 3 ] { OutI_0, OutI_1, OutI_2 };
}
variable OutN {
    type discrete [ 1 ] { OutN_0 };
}
variable PitC {
    type discrete [ 3 ] { PitC_0, PitC_1, PitC_2 };
}
variable PitD {
    type discrete [ 3 ] { PitD_0, PitD_1, PitD_2 };
}
variable PitN {
    type discrete [ 2 ] { PitN_0, PitN_1 };
}
variable PitT {
    type discrete [ 3 ] { PitT_0, PitT_1, PitT_2 };
}
variable PitUn {
    type discrete [ 2 ] { PitUn_0, PitUn_1 };
}
variable PitUp {
    type discrete [ 3 ] { PitUp_0, PitUp_1, PitUp_2 };
}
probability ( AN ) {
    table 0.204835766423, 0.409215328467, 0.204835766423, 0.181113138686 ;
}
probability ( CsH | AN, InI ) {
    table 0.124227093873, 0.0160398532873, 0.0314465408805, 0.333333333333, 0.333333333333, 0.00101648692203, 0.333333333333, 0.0314465408805, 0.000249613099695, 0.333333333333, 0.333333333333, 0.0204653770676, 0.872962338392, 0.971861827339, 0.937106918239, 0.333333333333, 0.333333333333, 0.0991942481716, 0.333333333333, 0.937106918239, 0.476511407319, 0.333333333333, 0.333333333333, 0.914662181105, 0.00281056773468, 0.0120983193737, 0.0314465408805, 0.333333333333, 0.333333333333, 0.899789264906, 0.333333333333, 0.0314465408805, 0.523238979582, 0.333333333333, 0.333333333333, 0.0648724418279 ;
}
probability ( CsI | AN, InD ) {
    table 0.0064850843061, 0.0320702739228, 0.025641025641, 0.333333333333, 0.00680272108844, 0.00012621481762, 0.333333333333, 0.0406504065041, 0.000249165296258, 0.0187265917603, 0.0131056158453, 0.104761904762, 0.987029831388, 0.960185040803, 0.948717948718, 0.333333333333, 0.496598639456, 0.00921368168623, 0.333333333333, 0.0406504065041, 0.000249165296258, 0.962546816479, 0.94390084801, 0.88843537415, 0.0064850843061, 0.0077446852747, 0.025641025641, 0.333333333333, 0.496598639456, 0.990660103496, 0.333333333333, 0.918699186992, 0.999501669407, 0.0187265917603, 0.0429935361442, 0.00680272108844 ;
}
probability ( CsM | AN, InI ) {
    table 0.36706014615, 0.0239229211146, 0.0314465408805, 0.333333333333, 0.333333333333, 0.00012396181976, 0.333333333333, 0.0314465408805, 0.000249613099695, 0.333333333333, 0.333333333333, 0.000280347631063, 0.630129286116, 0.971861827339, 0.0314465408805, 0.333333333333, 0.333333333333, 0.00101648692203, 0.333333333333, 0.25786163522, 0.0110328990065, 0.333333333333, 0.333333333333, 0.000280347631063, 0.00281056773468, 0.0042152515465, 0.937106918239, 0.333333333333, 0.333333333333, 0.998859551258, 0.333333333333, 0.710691823899, 0.988717487894, 0.333333333333, 0.333333333333, 0.999439304738 ;
}
probability ( DDro | AN, CsH, CsI, PitC ) {
    table 0.5, 0.5, 0.5, 0.994279176201, 0.997441146366, 0.5, 0.5, 0.977876106195, 0.5, 0.997441146366, 0.99617151608, 0.5, 0.997441146366, 0.999954526438, 0.994279176201, 0.5, 0.977876106195, 0.988687782805, 0.977876106195, 0.977876106195, 0.5, 0.5, 0.994279176201, 0.5, 0.5, 0.5, 0.5, 0.5, 0.5, 0.5, 0.5, 0.5, 0.5, 0.5, 0.5, 0.977876106195, 0.5, 0.5, 0.5, 0.5, 0.5, 0.797247706422, 0.5, 0.0221238938053, 0.799867783164, 0.5, 0.5, 0.5, 0.5, 0.5, 0.932, 0.5, 0.375719217491, 0.586797950839, 0.5, 0.5, 0.5, 0.5, 0.5, 0.5, 0.5, 0.5, 0.5, 0.5, 0.5, 0.5, 0.5, 0.5, 0.5, 0.5, 0.977876106195, 0.999913641231, 0.5, 0.5, 0.5, 0.5, 0.5, 0.5, 0.5, 0.5, 0.999920465753, 0.5, 0.5, 0.5, 0.5, 0.5, 0.99617151608, 0.5, 0.5, 0.994279176201, 0.5, 0.5, 0.997123130035, 0.5, 0.5, 0.999946422066, 0.5, 0.5, 0.99822569198, 0.5, 0.5, 0.5, 0.5, 0.5, 0.999203060249, 0.5, 0.5, 0.992401215805, 0.5, 0.5, 0.5, 0.00572082379863, 0.00255885363357, 0.5, 0.5, 0.0221238938053, 0.5, 0.00255885363357, 0.00382848392037, 0.5, 0.00255885363357, 4.54735616712e-05, 0.00572082379863, 0.5, 0.0221238938053, 0.0113122171946, 0.0221238938053, 0.0221238938053, 0.5, 0.5, 0.00572082379863, 0.5, 0.5, 0.5, 0.5, 0.5, 0.5, 0.5, 0.5, 0.5, 0.5, 0.5, 0.5, 0.0221238938053, 0.5, 0.5, 0.5, 0.5, 0.5, 0.202752293578, 0.5, 0.977876106195, 0.200132216836, 0.5, 0.5, 0.5, 0.5, 0.5, 0.068, 0.5, 0.624280782509, 0.413202049161, 0.5, 0.5, 0.5, 0.5, 0.5, 0.5, 0.5, 0.5, 0.5, 0.5, 0.5, 0.5, 0.5, 0.5, 0.5, 0.5, 0.0221238938053, 8.63587688694e-05, 0.5, 0.5, 0.5, 0.5, 0.5, 0.5, 0.5, 0.5, 7.9534247447e-05, 0.5, 0.5, 0.5, 0.5, 0.5, 0.00382848392037, 0.5, 0.5, 0.00572082379863, 0.5, 0.5, 0.00287686996548, 0.5, 0.5, 5.35779344635e-05, 0.5, 0.5, 0.00177430801987, 0.5, 0.5, 0.5, 0.5, 0.5, 0.000796939751355, 0.5, 0.5, 0.00759878419453 ;
}
probability ( IDro | CsM, InI ) {
    table 1.0, 1.0, 1.0, 1.0, 1.0, 1.0, 1.0, 1.0, 1.0 ;
}
probability ( InD | AN ) {
    table 0.0381588715664, 0.000371609067261, 0.000742390497402, 0.0149454240134, 0.952190051967, 0.0182088442958, 0.00608760207869, 0.943912678421, 0.00965107646622, 0.981419546637, 0.993170007424, 0.0411418975651 ;
}
probability ( InI | AN ) {
    table 0.0880475129918, 0.000371609067261, 0.000742390497402, 0.000839630562552, 0.904083147736, 0.000371609067261, 0.00786933927246, 0.000839630562552, 0.00786933927246, 0.999256781865, 0.99138827023, 0.998320738875 ;
}
probability ( InN ) {
    table 1.0 ;
}
probability ( NDro | InN ) {
    table 1.0 ;
}
probability ( OutD | AN, CsH, CsI ) {
    table 0.333333333333, 0.460183227625, 0.0406504065041, 0.59755351682, 0.00583426433296, 0.0147492625369, 0.489177489177, 0.0111856823266, 0.333333333333, 0.333333333333, 0.333333333333, 0.0406504065041, 0.333333333333, 0.00900900900901, 0.000436185989706, 0.333333333333, 0.00305810397554, 4.66161347766e-05, 0.333333333333, 0.333333333333, 0.333333333333, 0.333333333333, 0.333333333333, 0.000172016375959, 0.333333333333, 0.333333333333, 0.000159017905416, 0.333333333333, 0.659125188537, 0.0111856823266, 0.865756541524, 0.000107132909087, 0.00352360817477, 0.333333333333, 0.0015888147442, 0.0147492625369, 0.333333333333, 0.5362931642, 0.918699186992, 0.399388379205, 0.994077069036, 0.0147492625369, 0.489177489177, 0.977628635347, 0.333333333333, 0.333333333333, 0.333333333333, 0.0406504065041, 0.333333333333, 0.981981981982, 0.00985780336736, 0.333333333333, 0.267278287462, 4.66161347766e-05, 0.333333333333, 0.333333333333, 0.333333333333, 0.333333333333, 0.333333333333, 0.000172016375959, 0.333333333333, 0.333333333333, 0.000159017905416, 0.333333333333, 0.333333333333, 0.977628635347, 0.128555176337, 0.997471663346, 0.5362931642, 0.333333333333, 0.859548776613, 0.0147492625369, 0.333333333333, 0.00352360817477, 0.0406504065041, 0.00305810397554, 8.86666312e-05, 0.970501474926, 0.021645021645, 0.0111856823266, 0.333333333333, 0.333333333333, 0.333333333333, 0.918699186992, 0.333333333333, 0.00900900900901, 0.989706010643, 0.333333333333, 0.729663608563, 0.99990676773, 0.333333333333, 0.333333333333, 0.333333333333, 0.333333333333, 0.333333333333, 0.999655967248, 0.333333333333, 0.333333333333, 0.999681964189, 0.333333333333, 0.00754147812971, 0.0111856823266, 0.00568828213879, 0.00242120374537, 0.460183227625, 0.333333333333, 0.138862408643, 0.970501474926 ;
}
probability ( OutI | AN, CsM ) {
    table 0.0374429223744, 0.0517506223847, 0.021645021645, 0.333333333333, 0.0980392156863, 0.000124072557632, 0.333333333333, 0.0187265917603, 0.000250966219947, 0.333333333333, 0.333333333333, 0.000280347631063, 0.95799086758, 0.938450129774, 0.95670995671, 0.333333333333, 0.0980392156863, 0.000124072557632, 0.333333333333, 0.0187265917603, 0.0165135772725, 0.333333333333, 0.333333333333, 0.000280347631063, 0.00456621004566, 0.00979924784152, 0.021645021645, 0.333333333333, 0.803921568627, 0.999751854885, 0.333333333333, 0.962546816479, 0.983235456508, 0.333333333333, 0.333333333333, 0.999439304738 ;
}
probability ( OutN | InI, InN ) {
    table 1.0, 1.0, 1.0 ;
}
probability ( PitC | AN, InI ) {
    table 0.34682405846, 0.0120983193737, 0.0314465408805, 0.333333333333, 0.333333333333, 0.00012396181976, 0.333333333333, 0.0314465408805, 0.000249613099695, 0.333333333333, 0.333333333333, 0.000280347631063, 0.650365373806, 0.981715662123, 0.25786163522, 0.333333333333, 0.333333333333, 0.00815668774018, 0.333333333333, 0.0314465408805, 0.0020468274175, 0.333333333333, 0.333333333333, 0.000280347631063, 0.00281056773468, 0.00618601850331, 0.710691823899, 0.333333333333, 0.333333333333, 0.99171935044, 0.333333333333, 0.937106918239, 0.997703559483, 0.333333333333, 0.333333333333, 0.999439304738 ;
}
probability ( PitD | AN, CsH, CsI, PitUn ) {
    table 0.333333333333, 0.333333333333, 0.460857244067, 0.333333333333, 0.021645021645, 0.333333333333, 0.532411674347, 0.333333333333, 0.0134525171371, 0.333333333333, 0.00754147812971, 0.333333333333, 0.494407158837, 0.333333333333, 0.00568828213879, 0.333333333333, 0.333333333333, 0.333333333333, 0.333333333333, 0.333333333333, 0.333333333333, 0.333333333333, 0.333333333333, 0.95670995671, 0.333333333333, 0.333333333333, 0.333333333333, 0.00456621004566, 0.00327439423707, 0.000233655778307, 0.333333333333, 0.333333333333, 0.021645021645, 0.00164527805199, 0.0031378228337, 3.47012568795e-05, 0.333333333333, 0.333333333333, 0.333333333333, 0.333333333333, 0.333333333333, 0.333333333333, 0.333333333333, 0.333333333333, 0.333333333333, 0.333333333333, 8.60303859323e-05, 0.333333333333, 0.333333333333, 0.333333333333, 0.333333333333, 0.333333333333, 7.95279222535e-05, 0.333333333333, 0.333333333333, 0.333333333333, 0.0111856823266, 0.00568828213879, 0.333333333333, 0.00568828213879, 0.333333333333, 0.00286861732645, 0.000412847824292, 6.1552855437e-05, 0.333333333333, 0.00177116542685, 0.333333333333, 0.333333333333, 0.333333333333, 0.000796305144131, 0.00754147812971, 0.333333333333, 0.333333333333, 0.333333333333, 0.537371590507, 0.333333333333, 0.95670995671, 0.333333333333, 0.466052227343, 0.333333333333, 0.982672235672, 0.333333333333, 0.00754147812971, 0.333333333333, 0.494407158837, 0.333333333333, 0.988623435722, 0.333333333333, 0.333333333333, 0.333333333333, 0.333333333333, 0.333333333333, 0.333333333333, 0.333333333333, 0.333333333333, 0.021645021645, 0.333333333333, 0.333333333333, 0.333333333333, 0.00456621004566, 0.427635887361, 0.0204215150241, 0.333333333333, 0.333333333333, 0.021645021645, 0.00164527805199, 0.0307393051355, 0.00753017274286, 0.333333333333, 0.333333333333, 0.333333333333, 0.333333333333, 0.333333333333, 0.333333333333, 0.333333333333, 0.333333333333, 0.333333333333, 0.333333333333, 8.60303859323e-05, 0.333333333333, 0.333333333333, 0.333333333333, 0.333333333333, 0.333333333333, 7.95279222535e-05, 0.333333333333, 0.333333333333, 0.333333333333, 0.977628635347, 0.00568828213879, 0.333333333333, 0.00568828213879, 0.333333333333, 0.00286861732645, 0.999174304351, 6.1552855437e-05, 0.333333333333, 0.00177116542685, 0.333333333333, 0.333333333333, 0.333333333333, 0.000796305144131, 0.984917043741, 0.333333333333, 0.333333333333, 0.333333333333, 0.00177116542685, 0.333333333333, 0.021645021645, 0.333333333333, 0.00153609831029, 0.333333333333, 0.00387524719111, 0.333333333333, 0.984917043741, 0.333333333333, 0.0111856823266, 0.333333333333, 0.00568828213879, 0.333333333333, 0.333333333333, 0.333333333333, 0.333333333333, 0.333333333333, 0.333333333333, 0.333333333333, 0.333333333333, 0.021645021645, 0.333333333333, 0.333333333333, 0.333333333333, 0.990867579909, 0.569089718402, 0.979344829198, 0.333333333333, 0.333333333333, 0.95670995671, 0.996709443896, 0.966122872031, 0.992435126, 0.333333333333, 0.333333333333, 0.333333333333, 0.333333333333, 0.333333333333, 0.333333333333, 0.333333333333, 0.333333333333, 0.333333333333, 0.333333333333, 0.999827939228, 0.333333333333, 0.333333333333, 0.333333333333, 0.333333333333, 0.333333333333, 0.999840944155, 0.333333333333, 0.333333333333, 0.333333333333, 0.0111856823266, 0.988623435722, 0.333333333333, 0.988623435722, 0.333333333333, 0.994262765347, 0.000412847824292, 0.999876894289, 0.333333333333, 0.996457669146, 0.333333333333, 0.333333333333, 0.333333333333, 0.998407389712, 0.00754147812971, 0.333333333333 ;
}
probability ( PitN | AN, PitC, PitD ) {
    table 0.995948136143, 0.988687782805, 0.5, 0.791891891892, 0.971249138799, 0.967532467532, 0.5, 0.340707964602, 0.977876106195, 0.5, 0.5, 0.5, 0.0609756097561, 0.0113122171946, 0.0324675324675, 0.0609756097561, 0.0049115913556, 0.102240186513, 0.5, 0.5, 0.5, 0.5, 0.5, 0.939024390244, 0.5, 0.5, 0.835337075861, 0.5, 0.5, 0.5, 0.5, 0.5, 0.5, 0.5, 0.00113584734212, 0.000159959050483, 0.00405186385737, 0.0113122171946, 0.5, 0.208108108108, 0.0287508612009, 0.0324675324675, 0.5, 0.659292035398, 0.0221238938053, 0.5, 0.5, 0.5, 0.939024390244, 0.988687782805, 0.967532467532, 0.939024390244, 0.995088408644, 0.897759813487, 0.5, 0.5, 0.5, 0.5, 0.5, 0.0609756097561, 0.5, 0.5, 0.164662924139, 0.5, 0.5, 0.5, 0.5, 0.5, 0.5, 0.5, 0.998864152658, 0.99984004095 ;
}
probability ( PitT | AN, PitC, PitD ) {
    table 0.00270124257158, 0.00754147812971, 0.333333333333, 0.00900900900901, 0.0535092833042, 0.021645021645, 0.333333333333, 0.0147492625369, 0.0147492625369, 0.333333333333, 0.333333333333, 0.333333333333, 0.0406504065041, 0.00754147812971, 0.021645021645, 0.0406504065041, 0.00327439423707, 0.0128143398968, 0.333333333333, 0.333333333333, 0.333333333333, 0.333333333333, 0.333333333333, 0.918699186992, 0.333333333333, 0.333333333333, 0.0161789789193, 0.333333333333, 0.333333333333, 0.333333333333, 0.333333333333, 0.333333333333, 0.333333333333, 0.333333333333, 0.000757231561411, 0.000106639366989, 0.877903835764, 0.822021116139, 0.333333333333, 0.981981981982, 0.929231367145, 0.95670995671, 0.333333333333, 0.970501474926, 0.970501474926, 0.333333333333, 0.333333333333, 0.333333333333, 0.0406504065041, 0.00754147812971, 0.021645021645, 0.0406504065041, 0.00327439423707, 0.222641764443, 0.333333333333, 0.333333333333, 0.333333333333, 0.333333333333, 0.333333333333, 0.0406504065041, 0.333333333333, 0.333333333333, 0.981949757398, 0.333333333333, 0.333333333333, 0.333333333333, 0.333333333333, 0.333333333333, 0.333333333333, 0.333333333333, 0.933060729971, 0.000106639366989, 0.119394921664, 0.170437405732, 0.333333333333, 0.00900900900901, 0.0172593495504, 0.021645021645, 0.333333333333, 0.0147492625369, 0.0147492625369, 0.333333333333, 0.333333333333, 0.333333333333, 0.918699186992, 0.984917043741, 0.95670995671, 0.918699186992, 0.993451211526, 0.764543895661, 0.333333333333, 0.333333333333, 0.333333333333, 0.333333333333, 0.333333333333, 0.0406504065041, 0.333333333333, 0.333333333333, 0.00187126368258, 0.333333333333, 0.333333333333, 0.333333333333, 0.333333333333, 0.333333333333, 0.333333333333, 0.333333333333, 0.0661820384674, 0.999786721266 ;
}
probability ( PitUn | AN ) {
    table 0.998886414254, 0.298439241918, 0.998886414254, 0.124181360202, 0.0011135857461, 0.701560758082, 0.0011135857461, 0.875818639798 ;
}
probability ( PitUp | AN, CsI, CsM, InI, InN ) {
    table 0.897388632873, 0.496229260935, 0.333333333333, 0.496229260935, 0.333333333333, 0.333333333333, 0.333333333333, 0.333333333333, 0.333333333333, 0.871883390871, 0.200614439324, 0.333333333333, 0.17267027946, 0.0164572283163, 0.333333333333, 0.333333333333, 0.00754147812971, 0.00506585612969, 0.333333333333, 0.333333333333, 0.333333333333, 0.333333333333, 0.00506585612969, 0.333333333333, 0.333333333333, 0.333333333333, 0.0147492625369, 0.333333333333, 0.333333333333, 0.333333333333, 0.333333333333, 0.333333333333, 0.333333333333, 0.333333333333, 0.333333333333, 0.333333333333, 0.333333333333, 0.333333333333, 0.333333333333, 0.333333333333, 0.333333333333, 0.0147492625369, 0.333333333333, 0.333333333333, 0.000810241451953, 0.333333333333, 0.333333333333, 0.333333333333, 0.333333333333, 0.333333333333, 0.333333333333, 0.333333333333, 0.333333333333, 1.4028590267e-05, 0.333333333333, 0.333333333333, 0.333333333333, 0.333333333333, 0.333333333333, 0.333333333333, 0.333333333333, 0.333333333333, 0.333333333333, 0.333333333333, 0.333333333333, 0.333333333333, 0.333333333333, 0.333333333333, 0.333333333333, 0.333333333333, 0.333333333333, 0.333333333333, 0.333333333333, 0.333333333333, 0.333333333333, 0.333333333333, 0.0147492625369, 0.00255232261358, 0.333333333333, 0.00506585612969, 2.80559997756e-05, 0.333333333333, 0.333333333333, 0.333333333333, 0.333333333333, 0.333333333333, 0.333333333333, 0.333333333333, 0.333333333333, 0.00191791331032, 0.333333333333, 0.333333333333, 0.333333333333, 0.333333333333, 0.333333333333, 0.333333333333, 0.333333333333, 0.333333333333, 3.30419037423e-05, 0.333333333333, 0.333333333333, 0.333333333333, 0.333333333333, 0.333333333333, 0.333333333333, 0.333333333333, 0.333333333333, 0.000769822940724, 0.101075268817, 0.496229260935, 0.333333333333, 0.496229260935, 0.661600810537, 0.333333333333, 0.333333333333, 0.333333333333, 0.333333333333, 0.126198695819, 0.797849462366, 0.333333333333, 0.826798427372, 0.979404700798, 0.333333333333, 0.333333333333, 0.496229260935, 0.333333333333, 0.333333333333, 0.333333333333, 0.333333333333, 0.333333333333, 0.989868287741, 0.333333333333, 0.333333333333, 0.333333333333, 0.970501474926, 0.333333333333, 0.333333333333, 0.333333333333, 0.333333333333, 0.333333333333, 0.333333333333, 0.333333333333, 0.333333333333, 0.333333333333, 0.333333333333, 0.333333333333, 0.333333333333, 0.333333333333, 0.333333333333, 0.0147492625369, 0.333333333333, 0.333333333333, 0.000810241451953, 0.333333333333, 0.333333333333, 0.333333333333, 0.333333333333, 0.333333333333, 0.333333333333, 0.333333333333, 0.333333333333, 1.4028590267e-05, 0.333333333333, 0.333333333333, 0.333333333333, 0.333333333333, 0.333333333333, 0.333333333333, 0.333333333333, 0.333333333333, 0.333333333333, 0.333333333333, 0.333333333333, 0.333333333333, 0.333333333333, 0.333333333333, 0.333333333333, 0.333333333333, 0.333333333333, 0.333333333333, 0.333333333333, 0.333333333333, 0.333333333333, 0.333333333333, 0.970501474926, 0.498723838693, 0.333333333333, 0.00506585612969, 0.0236624302107, 0.333333333333, 0.333333333333, 0.333333333333, 0.333333333333, 0.333333333333, 0.333333333333, 0.333333333333, 0.333333333333, 0.00191791331032, 0.333333333333, 0.333333333333, 0.333333333333, 0.333333333333, 0.333333333333, 0.333333333333, 0.333333333333, 0.333333333333, 3.30419037423e-05, 0.333333333333, 0.333333333333, 0.333333333333, 0.333333333333, 0.333333333333, 0.333333333333, 0.333333333333, 0.333333333333, 0.000769822940724, 0.00153609831029, 0.00754147812971, 0.333333333333, 0.00754147812971, 0.00506585612969, 0.333333333333, 0.333333333333, 0.333333333333, 0.333333333333, 0.00191791331032, 0.00153609831029, 0.333333333333, 0.00053129316757, 0.00413807088585, 0.333333333333, 0.333333333333, 0.496229260935, 0.661600810537, 0.333333333333, 0.333333333333, 0.333333333333, 0.333333333333, 0.00506585612969, 0.333333333333, 0.333333333333, 0.333333333333, 0.0147492625369, 0.333333333333, 0.333333333333, 0.333333333333, 0.333333333333, 0.333333333333, 0.333333333333, 0.333333333333, 0.333333333333, 0.333333333333, 0.333333333333, 0.333333333333, 0.333333333333, 0.333333333333, 0.333333333333, 0.970501474926, 0.333333333333, 0.333333333333, 0.998379517096, 0.333333333333, 0.333333333333, 0.333333333333, 0.333333333333, 0.333333333333, 0.333333333333, 0.333333333333, 0.333333333333, 0.999971942819, 0.333333333333, 0.333333333333, 0.333333333333, 0.333333333333, 0.333333333333, 0.333333333333, 0.333333333333, 0.333333333333, 0.333333333333, 0.333333333333, 0.333333333333, 0.333333333333, 0.333333333333, 0.333333333333, 0.333333333333, 0.333333333333, 0.333333333333, 0.333333333333, 0.333333333333, 0.333333333333, 0.333333333333, 0.333333333333, 0.0147492625369, 0.498723838693, 0.333333333333, 0.989868287741, 0.97630951379, 0.333333333333, 0.333333333333, 0.333333333333, 0.333333333333, 0.333333333333, 0.333333333333, 0.333333333333, 0.333333333333, 0.996164173379, 0.333333333333, 0.333333333333, 0.333333333333, 0.333333333333, 0.333333333333, 0.333333333333, 0.333333333333, 0.333333333333, 0.999933916193, 0.333333333333, 0.333333333333, 0.333333333333, 0.333333333333, 0.333333333333, 0.333333333333, 0.333333333333, 0.333333333333, 0.998460354119 ;
}
